0.220228
0.039982
0.693469
0.807538
0.095896
0.401074
0.451391
0.482319
0.050014
-0.181417
-0.500388
-0.140365
-0.443295
-0.156619
-0.164151
-0.592521
-0.072692
0.226649
-0.092799
-0.031532
0.412132
-0.395988
0.067041
-0.031923
0.101718
-0.315806
0.097211
-0.468253
-0.365877
-0.287398
0.394942
-0.875242
-0.217657
-0.624750
-0.236783
-0.665222
-0.049503
-0.481847
-0.585134
-0.639328
-0.004086
-0.398331
0.495390
-0.167907
-0.202653
-0.706145
-0.201756
-0.900344
-0.441267
0.747977
0.131070
-0.410108
-0.419138
0.277241
0.136945
-0.412923
-0.837541
0.325809
0.324649
0.280525
0.732865
-0.003112
0.034999
0.207773
0.372090
0.229709
0.532766
0.144844
-0.348556
0.518044
0.382182
0.568021
-0.092422
0.951676
-0.624462
0.107866
0.241254
-0.857232
-0.372112
0.395528
0.656729
-0.071570
0.644948
0.234341
-0.448668
-0.427115
-0.873518
0.644339
0.652463
0.183716
-0.367917
0.568712
-0.389647
-0.382507
0.140718
-0.287244
0.363267
-0.212914
-0.378860
-0.222013
-0.381231
-0.227088
0.008553
0.250873
-0.204311
-0.133563
-0.130801
0.185028
0.097942
0.635352
-0.132347
-0.410030
-0.529391
0.597446
-0.294325
-0.111728
0.051779
-0.271047
0.487928
-0.131577
-0.464212
0.281932
-0.073881
0.119579
0.062885
0.356385
-0.082989
0.114770
-3.740184
2.211159
3.737390
4.202388
1.676866
8.033773
4.651020
-6.635114
